digraph Tree {
node [shape=box] ;
0 [label="36 <= 0.0086\ngini = 0.7978\nsamples = 1780\nvalue = [399, 312, 331, 403, 335]"] ;
1 [label="7667 <= 0.0034\ngini = 0.7875\nsamples = 1617\nvalue = [394, 312, 330, 403, 178]"] ;
0 -> 1 [labeldistance=2.5, labelangle=45, headlabel="True"] ;
2 [label="84 <= 0.0303\ngini = 0.7782\nsamples = 1473\nvalue = [394, 312, 186, 403, 178]"] ;
1 -> 2 ;
3 [label="1036 <= 0.0125\ngini = 0.7601\nsamples = 1287\nvalue = [392, 158, 183, 403, 151]"] ;
2 -> 3 ;
4 [label="129 <= 0.0183\ngini = 0.756\nsamples = 997\nvalue = [384, 134, 162, 176, 141]"] ;
3 -> 4 ;
5 [label="194 <= 0.0208\ngini = 0.7886\nsamples = 759\nvalue = [202, 126, 157, 175, 99]"] ;
4 -> 5 ;
6 [label="151 <= 0.0258\ngini = 0.7775\nsamples = 628\nvalue = [170, 124, 66, 174, 94]"] ;
5 -> 6 ;
7 [label="1369 <= 0.0194\ngini = 0.7549\nsamples = 544\nvalue = [170, 64, 66, 174, 70]"] ;
6 -> 7 ;
8 [label="48 <= 0.0197\ngini = 0.7543\nsamples = 437\nvalue = [167, 62, 64, 91, 53]"] ;
7 -> 8 ;
9 [label="536 <= 0.0138\ngini = 0.7856\nsamples = 313\nvalue = [76, 54, 61, 85, 37]"] ;
8 -> 9 ;
10 [label="1097 <= 0.0097\ngini = 0.7821\nsamples = 280\nvalue = [43, 54, 61, 85, 37]"] ;
9 -> 10 ;
11 [label="812 <= 0.013\ngini = 0.7564\nsamples = 252\nvalue = [41, 54, 59, 85, 13]"] ;
10 -> 11 ;
12 [label="207 <= 0.0256\ngini = 0.7718\nsamples = 218\nvalue = [41, 53, 59, 52, 13]"] ;
11 -> 12 ;
13 [label="1656 <= 0.0405\ngini = 0.7566\nsamples = 198\nvalue = [22, 52, 59, 52, 13]"] ;
12 -> 13 ;
14 [label="4969 <= 0.0712\ngini = 0.7544\nsamples = 182\nvalue = [22, 52, 59, 36, 13]"] ;
13 -> 14 ;
15 [label="2387 <= 0.0285\ngini = 0.7421\nsamples = 169\nvalue = [22, 52, 59, 23, 13]"] ;
14 -> 15 ;
16 [label="102 <= 0.035\ngini = 0.7402\nsamples = 148\nvalue = [22, 34, 59, 20, 13]"] ;
15 -> 16 ;
17 [label="437 <= 0.0534\ngini = 0.7302\nsamples = 137\nvalue = [22, 23, 59, 20, 13]"] ;
16 -> 17 ;
18 [label="1239 <= 0.017\ngini = 0.7034\nsamples = 125\nvalue = [21, 13, 59, 20, 12]"] ;
17 -> 18 ;
19 [label="982 <= 0.0295\ngini = 0.7525\nsamples = 105\nvalue = [21, 12, 40, 20, 12]"] ;
18 -> 19 ;
20 [label="gini = 0.7878\nsamples = 85\nvalue = [19, 12, 22, 20, 12]"] ;
19 -> 20 ;
21 [label="gini = 0.18\nsamples = 20\nvalue = [2, 0, 18, 0, 0]"] ;
19 -> 21 ;
22 [label="6696 <= 0.0388\ngini = 0.095\nsamples = 20\nvalue = [0, 1, 19, 0, 0]"] ;
18 -> 22 ;
23 [label="gini = 0.0\nsamples = 19\nvalue = [0, 0, 19, 0, 0]"] ;
22 -> 23 ;
24 [label="gini = 0.0\nsamples = 1\nvalue = [0, 1, 0, 0, 0]"] ;
22 -> 24 ;
25 [label="773 <= 0.0599\ngini = 0.2917\nsamples = 12\nvalue = [1, 10, 0, 0, 1]"] ;
17 -> 25 ;
26 [label="3123 <= 0.1\ngini = 0.1653\nsamples = 11\nvalue = [1, 10, 0, 0, 0]"] ;
25 -> 26 ;
27 [label="gini = 0.0\nsamples = 10\nvalue = [0, 10, 0, 0, 0]"] ;
26 -> 27 ;
28 [label="gini = 0.0\nsamples = 1\nvalue = [1, 0, 0, 0, 0]"] ;
26 -> 28 ;
29 [label="gini = 0.0\nsamples = 1\nvalue = [0, 0, 0, 0, 1]"] ;
25 -> 29 ;
30 [label="gini = 0.0\nsamples = 11\nvalue = [0, 11, 0, 0, 0]"] ;
16 -> 30 ;
31 [label="460 <= 0.0733\ngini = 0.2449\nsamples = 21\nvalue = [0, 18, 0, 3, 0]"] ;
15 -> 31 ;
32 [label="8443 <= 0.2546\ngini = 0.0997\nsamples = 19\nvalue = [0, 18, 0, 1, 0]"] ;
31 -> 32 ;
33 [label="gini = 0.0\nsamples = 18\nvalue = [0, 18, 0, 0, 0]"] ;
32 -> 33 ;
34 [label="gini = 0.0\nsamples = 1\nvalue = [0, 0, 0, 1, 0]"] ;
32 -> 34 ;
35 [label="gini = 0.0\nsamples = 2\nvalue = [0, 0, 0, 2, 0]"] ;
31 -> 35 ;
36 [label="gini = 0.0\nsamples = 13\nvalue = [0, 0, 0, 13, 0]"] ;
14 -> 36 ;
37 [label="gini = 0.0\nsamples = 16\nvalue = [0, 0, 0, 16, 0]"] ;
13 -> 37 ;
38 [label="5728 <= 0.0779\ngini = 0.095\nsamples = 20\nvalue = [19, 1, 0, 0, 0]"] ;
12 -> 38 ;
39 [label="gini = 0.0\nsamples = 19\nvalue = [19, 0, 0, 0, 0]"] ;
38 -> 39 ;
40 [label="gini = 0.0\nsamples = 1\nvalue = [0, 1, 0, 0, 0]"] ;
38 -> 40 ;
41 [label="2869 <= 0.0452\ngini = 0.0571\nsamples = 34\nvalue = [0, 1, 0, 33, 0]"] ;
11 -> 41 ;
42 [label="gini = 0.0\nsamples = 33\nvalue = [0, 0, 0, 33, 0]"] ;
41 -> 42 ;
43 [label="gini = 0.0\nsamples = 1\nvalue = [0, 1, 0, 0, 0]"] ;
41 -> 43 ;
44 [label="411 <= 0.0209\ngini = 0.2551\nsamples = 28\nvalue = [2, 0, 2, 0, 24]"] ;
10 -> 44 ;
45 [label="474 <= 0.0219\ngini = 0.0768\nsamples = 25\nvalue = [1, 0, 0, 0, 24]"] ;
44 -> 45 ;
46 [label="gini = 0.0\nsamples = 24\nvalue = [0, 0, 0, 0, 24]"] ;
45 -> 46 ;
47 [label="gini = 0.0\nsamples = 1\nvalue = [1, 0, 0, 0, 0]"] ;
45 -> 47 ;
48 [label="2873 <= 0.0239\ngini = 0.4444\nsamples = 3\nvalue = [1, 0, 2, 0, 0]"] ;
44 -> 48 ;
49 [label="gini = 0.0\nsamples = 2\nvalue = [0, 0, 2, 0, 0]"] ;
48 -> 49 ;
50 [label="gini = 0.0\nsamples = 1\nvalue = [1, 0, 0, 0, 0]"] ;
48 -> 50 ;
51 [label="gini = 0.0\nsamples = 33\nvalue = [33, 0, 0, 0, 0]"] ;
9 -> 51 ;
52 [label="1315 <= 0.0226\ngini = 0.4377\nsamples = 124\nvalue = [91, 8, 3, 6, 16]"] ;
8 -> 52 ;
53 [label="1731 <= 0.0128\ngini = 0.315\nsamples = 107\nvalue = [88, 7, 3, 4, 5]"] ;
52 -> 53 ;
54 [label="1096 <= 0.0369\ngini = 0.2509\nsamples = 102\nvalue = [88, 3, 3, 4, 4]"] ;
53 -> 54 ;
55 [label="4464 <= 0.0459\ngini = 0.1745\nsamples = 97\nvalue = [88, 3, 3, 1, 2]"] ;
54 -> 55 ;
56 [label="5667 <= 0.043\ngini = 0.1398\nsamples = 95\nvalue = [88, 3, 3, 1, 0]"] ;
55 -> 56 ;
57 [label="2940 <= 0.1784\ngini = 0.1034\nsamples = 93\nvalue = [88, 1, 3, 1, 0]"] ;
56 -> 57 ;
58 [label="495 <= 0.0395\ngini = 0.0642\nsamples = 91\nvalue = [88, 1, 2, 0, 0]"] ;
57 -> 58 ;
59 [label="7564 <= 0.1884\ngini = 0.0222\nsamples = 89\nvalue = [88, 0, 1, 0, 0]"] ;
58 -> 59 ;
60 [label="gini = 0.0\nsamples = 88\nvalue = [88, 0, 0, 0, 0]"] ;
59 -> 60 ;
61 [label="gini = 0.0\nsamples = 1\nvalue = [0, 0, 1, 0, 0]"] ;
59 -> 61 ;
62 [label="4095 <= 0.0248\ngini = 0.5\nsamples = 2\nvalue = [0, 1, 1, 0, 0]"] ;
58 -> 62 ;
63 [label="gini = 0.0\nsamples = 1\nvalue = [0, 0, 1, 0, 0]"] ;
62 -> 63 ;
64 [label="gini = 0.0\nsamples = 1\nvalue = [0, 1, 0, 0, 0]"] ;
62 -> 64 ;
65 [label="48 <= 0.0399\ngini = 0.5\nsamples = 2\nvalue = [0, 0, 1, 1, 0]"] ;
57 -> 65 ;
66 [label="gini = 0.0\nsamples = 1\nvalue = [0, 0, 1, 0, 0]"] ;
65 -> 66 ;
67 [label="gini = 0.0\nsamples = 1\nvalue = [0, 0, 0, 1, 0]"] ;
65 -> 67 ;
68 [label="gini = 0.0\nsamples = 2\nvalue = [0, 2, 0, 0, 0]"] ;
56 -> 68 ;
69 [label="gini = 0.0\nsamples = 2\nvalue = [0, 0, 0, 0, 2]"] ;
55 -> 69 ;
70 [label="655 <= 0.0163\ngini = 0.48\nsamples = 5\nvalue = [0, 0, 0, 3, 2]"] ;
54 -> 70 ;
71 [label="gini = 0.0\nsamples = 3\nvalue = [0, 0, 0, 3, 0]"] ;
70 -> 71 ;
72 [label="gini = 0.0\nsamples = 2\nvalue = [0, 0, 0, 0, 2]"] ;
70 -> 72 ;
73 [label="2386 <= 0.0304\ngini = 0.32\nsamples = 5\nvalue = [0, 4, 0, 0, 1]"] ;
53 -> 73 ;
74 [label="gini = 0.0\nsamples = 4\nvalue = [0, 4, 0, 0, 0]"] ;
73 -> 74 ;
75 [label="gini = 0.0\nsamples = 1\nvalue = [0, 0, 0, 0, 1]"] ;
73 -> 75 ;
76 [label="744 <= 0.0163\ngini = 0.5329\nsamples = 17\nvalue = [3, 1, 0, 2, 11]"] ;
52 -> 76 ;
77 [label="190 <= 0.0309\ngini = 0.4178\nsamples = 15\nvalue = [3, 1, 0, 0, 11]"] ;
76 -> 77 ;
78 [label="1793 <= 0.0196\ngini = 0.1528\nsamples = 12\nvalue = [1, 0, 0, 0, 11]"] ;
77 -> 78 ;
79 [label="gini = 0.0\nsamples = 11\nvalue = [0, 0, 0, 0, 11]"] ;
78 -> 79 ;
80 [label="gini = 0.0\nsamples = 1\nvalue = [1, 0, 0, 0, 0]"] ;
78 -> 80 ;
81 [label="1409 <= 0.0308\ngini = 0.4444\nsamples = 3\nvalue = [2, 1, 0, 0, 0]"] ;
77 -> 81 ;
82 [label="gini = 0.0\nsamples = 2\nvalue = [2, 0, 0, 0, 0]"] ;
81 -> 82 ;
83 [label="gini = 0.0\nsamples = 1\nvalue = [0, 1, 0, 0, 0]"] ;
81 -> 83 ;
84 [label="gini = 0.0\nsamples = 2\nvalue = [0, 0, 0, 2, 0]"] ;
76 -> 84 ;
85 [label="60 <= 0.0126\ngini = 0.3716\nsamples = 107\nvalue = [3, 2, 2, 83, 17]"] ;
7 -> 85 ;
86 [label="4538 <= 0.0346\ngini = 0.2162\nsamples = 94\nvalue = [2, 2, 2, 83, 5]"] ;
85 -> 86 ;
87 [label="1960 <= 0.0224\ngini = 0.1479\nsamples = 90\nvalue = [2, 2, 2, 83, 1]"] ;
86 -> 87 ;
88 [label="4104 <= 0.0524\ngini = 0.1092\nsamples = 88\nvalue = [2, 2, 0, 83, 1]"] ;
87 -> 88 ;
89 [label="440 <= 0.0305\ngini = 0.0679\nsamples = 86\nvalue = [2, 0, 0, 83, 1]"] ;
88 -> 89 ;
90 [label="847 <= 0.1792\ngini = 0.0235\nsamples = 84\nvalue = [0, 0, 0, 83, 1]"] ;
89 -> 90 ;
91 [label="gini = 0.0\nsamples = 83\nvalue = [0, 0, 0, 83, 0]"] ;
90 -> 91 ;
92 [label="gini = 0.0\nsamples = 1\nvalue = [0, 0, 0, 0, 1]"] ;
90 -> 92 ;
93 [label="gini = 0.0\nsamples = 2\nvalue = [2, 0, 0, 0, 0]"] ;
89 -> 93 ;
94 [label="gini = 0.0\nsamples = 2\nvalue = [0, 2, 0, 0, 0]"] ;
88 -> 94 ;
95 [label="gini = 0.0\nsamples = 2\nvalue = [0, 0, 2, 0, 0]"] ;
87 -> 95 ;
96 [label="gini = 0.0\nsamples = 4\nvalue = [0, 0, 0, 0, 4]"] ;
86 -> 96 ;
97 [label="1920 <= 0.0505\ngini = 0.142\nsamples = 13\nvalue = [1, 0, 0, 0, 12]"] ;
85 -> 97 ;
98 [label="gini = 0.0\nsamples = 12\nvalue = [0, 0, 0, 0, 12]"] ;
97 -> 98 ;
99 [label="gini = 0.0\nsamples = 1\nvalue = [1, 0, 0, 0, 0]"] ;
97 -> 99 ;
100 [label="7491 <= 0.0099\ngini = 0.4082\nsamples = 84\nvalue = [0, 60, 0, 0, 24]"] ;
6 -> 100 ;
101 [label="60 <= 0.0299\ngini = 0.2268\nsamples = 69\nvalue = [0, 60, 0, 0, 9]"] ;
100 -> 101 ;
102 [label="596 <= 0.0179\ngini = 0.0644\nsamples = 60\nvalue = [0, 58, 0, 0, 2]"] ;
101 -> 102 ;
103 [label="gini = 0.0\nsamples = 58\nvalue = [0, 58, 0, 0, 0]"] ;
102 -> 103 ;
104 [label="gini = 0.0\nsamples = 2\nvalue = [0, 0, 0, 0, 2]"] ;
102 -> 104 ;
105 [label="5028 <= 0.03\ngini = 0.3457\nsamples = 9\nvalue = [0, 2, 0, 0, 7]"] ;
101 -> 105 ;
106 [label="gini = 0.0\nsamples = 7\nvalue = [0, 0, 0, 0, 7]"] ;
105 -> 106 ;
107 [label="gini = 0.0\nsamples = 2\nvalue = [0, 2, 0, 0, 0]"] ;
105 -> 107 ;
108 [label="gini = 0.0\nsamples = 15\nvalue = [0, 0, 0, 0, 15]"] ;
100 -> 108 ;
109 [label="536 <= 0.0403\ngini = 0.456\nsamples = 131\nvalue = [32, 2, 91, 1, 5]"] ;
5 -> 109 ;
110 [label="48 <= 0.0101\ngini = 0.366\nsamples = 114\nvalue = [17, 2, 89, 1, 5]"] ;
109 -> 110 ;
111 [label="82 <= 0.0295\ngini = 0.2086\nsamples = 96\nvalue = [8, 2, 85, 1, 0]"] ;
110 -> 111 ;
112 [label="196 <= 0.0387\ngini = 0.1439\nsamples = 92\nvalue = [4, 2, 85, 1, 0]"] ;
111 -> 112 ;
113 [label="569 <= 0.1145\ngini = 0.0462\nsamples = 85\nvalue = [1, 1, 83, 0, 0]"] ;
112 -> 113 ;
114 [label="4104 <= 0.0542\ngini = 0.0235\nsamples = 84\nvalue = [0, 1, 83, 0, 0]"] ;
113 -> 114 ;
115 [label="gini = 0.0\nsamples = 83\nvalue = [0, 0, 83, 0, 0]"] ;
114 -> 115 ;
116 [label="gini = 0.0\nsamples = 1\nvalue = [0, 1, 0, 0, 0]"] ;
114 -> 116 ;
117 [label="gini = 0.0\nsamples = 1\nvalue = [1, 0, 0, 0, 0]"] ;
113 -> 117 ;
118 [label="194 <= 0.0839\ngini = 0.6939\nsamples = 7\nvalue = [3, 1, 2, 1, 0]"] ;
112 -> 118 ;
119 [label="8 <= 0.0783\ngini = 0.56\nsamples = 5\nvalue = [3, 1, 0, 1, 0]"] ;
118 -> 119 ;
120 [label="gini = 0.0\nsamples = 3\nvalue = [3, 0, 0, 0, 0]"] ;
119 -> 120 ;
121 [label="3127 <= 0.1293\ngini = 0.5\nsamples = 2\nvalue = [0, 1, 0, 1, 0]"] ;
119 -> 121 ;
122 [label="gini = 0.0\nsamples = 1\nvalue = [0, 0, 0, 1, 0]"] ;
121 -> 122 ;
123 [label="gini = 0.0\nsamples = 1\nvalue = [0, 1, 0, 0, 0]"] ;
121 -> 123 ;
124 [label="gini = 0.0\nsamples = 2\nvalue = [0, 0, 2, 0, 0]"] ;
118 -> 124 ;
125 [label="gini = 0.0\nsamples = 4\nvalue = [4, 0, 0, 0, 0]"] ;
111 -> 125 ;
126 [label="4243 <= 0.0264\ngini = 0.6235\nsamples = 18\nvalue = [9, 0, 4, 0, 5]"] ;
110 -> 126 ;
127 [label="194 <= 0.0448\ngini = 0.426\nsamples = 13\nvalue = [9, 0, 4, 0, 0]"] ;
126 -> 127 ;
128 [label="5296 <= 0.04\ngini = 0.32\nsamples = 5\nvalue = [1, 0, 4, 0, 0]"] ;
127 -> 128 ;
129 [label="gini = 0.0\nsamples = 4\nvalue = [0, 0, 4, 0, 0]"] ;
128 -> 129 ;
130 [label="gini = 0.0\nsamples = 1\nvalue = [1, 0, 0, 0, 0]"] ;
128 -> 130 ;
131 [label="gini = 0.0\nsamples = 8\nvalue = [8, 0, 0, 0, 0]"] ;
127 -> 131 ;
132 [label="gini = 0.0\nsamples = 5\nvalue = [0, 0, 0, 0, 5]"] ;
126 -> 132 ;
133 [label="1407 <= 0.0755\ngini = 0.2076\nsamples = 17\nvalue = [15, 0, 2, 0, 0]"] ;
109 -> 133 ;
134 [label="gini = 0.0\nsamples = 15\nvalue = [15, 0, 0, 0, 0]"] ;
133 -> 134 ;
135 [label="gini = 0.0\nsamples = 2\nvalue = [0, 0, 2, 0, 0]"] ;
133 -> 135 ;
136 [label="2097 <= 0.0145\ngini = 0.3825\nsamples = 238\nvalue = [182, 8, 5, 1, 42]"] ;
4 -> 136 ;
137 [label="1369 <= 0.0218\ngini = 0.2347\nsamples = 209\nvalue = [182, 5, 5, 1, 16]"] ;
136 -> 137 ;
138 [label="3096 <= 0.0319\ngini = 0.1629\nsamples = 197\nvalue = [180, 5, 5, 1, 6]"] ;
137 -> 138 ;
139 [label="4103 <= 0.0239\ngini = 0.1287\nsamples = 193\nvalue = [180, 5, 2, 1, 5]"] ;
138 -> 139 ;
140 [label="3612 <= 0.062\ngini = 0.1016\nsamples = 190\nvalue = [180, 5, 2, 1, 2]"] ;
139 -> 140 ;
141 [label="662 <= 0.0343\ngini = 0.073\nsamples = 187\nvalue = [180, 3, 1, 1, 2]"] ;
140 -> 141 ;
142 [label="6090 <= 0.0419\ngini = 0.053\nsamples = 185\nvalue = [180, 3, 1, 1, 0]"] ;
141 -> 142 ;
143 [label="1958 <= 0.0537\ngini = 0.0324\nsamples = 183\nvalue = [180, 1, 1, 1, 0]"] ;
142 -> 143 ;
144 [label="5131 <= 0.0429\ngini = 0.011\nsamples = 181\nvalue = [180, 1, 0, 0, 0]"] ;
143 -> 144 ;
145 [label="gini = 0.0\nsamples = 180\nvalue = [180, 0, 0, 0, 0]"] ;
144 -> 145 ;
146 [label="gini = 0.0\nsamples = 1\nvalue = [0, 1, 0, 0, 0]"] ;
144 -> 146 ;
147 [label="508 <= 0.0552\ngini = 0.5\nsamples = 2\nvalue = [0, 0, 1, 1, 0]"] ;
143 -> 147 ;
148 [label="gini = 0.0\nsamples = 1\nvalue = [0, 0, 0, 1, 0]"] ;
147 -> 148 ;
149 [label="gini = 0.0\nsamples = 1\nvalue = [0, 0, 1, 0, 0]"] ;
147 -> 149 ;
150 [label="gini = 0.0\nsamples = 2\nvalue = [0, 2, 0, 0, 0]"] ;
142 -> 150 ;
151 [label="gini = 0.0\nsamples = 2\nvalue = [0, 0, 0, 0, 2]"] ;
141 -> 151 ;
152 [label="250 <= 0.0527\ngini = 0.4444\nsamples = 3\nvalue = [0, 2, 1, 0, 0]"] ;
140 -> 152 ;
153 [label="gini = 0.0\nsamples = 2\nvalue = [0, 2, 0, 0, 0]"] ;
152 -> 153 ;
154 [label="gini = 0.0\nsamples = 1\nvalue = [0, 0, 1, 0, 0]"] ;
152 -> 154 ;
155 [label="gini = 0.0\nsamples = 3\nvalue = [0, 0, 0, 0, 3]"] ;
139 -> 155 ;
156 [label="2268 <= 0.0285\ngini = 0.375\nsamples = 4\nvalue = [0, 0, 3, 0, 1]"] ;
138 -> 156 ;
157 [label="gini = 0.0\nsamples = 3\nvalue = [0, 0, 3, 0, 0]"] ;
156 -> 157 ;
158 [label="gini = 0.0\nsamples = 1\nvalue = [0, 0, 0, 0, 1]"] ;
156 -> 158 ;
159 [label="324 <= 0.0194\ngini = 0.2778\nsamples = 12\nvalue = [2, 0, 0, 0, 10]"] ;
137 -> 159 ;
160 [label="gini = 0.0\nsamples = 10\nvalue = [0, 0, 0, 0, 10]"] ;
159 -> 160 ;
161 [label="gini = 0.0\nsamples = 2\nvalue = [2, 0, 0, 0, 0]"] ;
159 -> 161 ;
162 [label="6633 <= 0.0321\ngini = 0.1855\nsamples = 29\nvalue = [0, 3, 0, 0, 26]"] ;
136 -> 162 ;
163 [label="5829 <= 0.0415\ngini = 0.0713\nsamples = 27\nvalue = [0, 1, 0, 0, 26]"] ;
162 -> 163 ;
164 [label="gini = 0.0\nsamples = 26\nvalue = [0, 0, 0, 0, 26]"] ;
163 -> 164 ;
165 [label="gini = 0.0\nsamples = 1\nvalue = [0, 1, 0, 0, 0]"] ;
163 -> 165 ;
166 [label="gini = 0.0\nsamples = 2\nvalue = [0, 2, 0, 0, 0]"] ;
162 -> 166 ;
167 [label="1239 <= 0.0204\ngini = 0.3732\nsamples = 290\nvalue = [8, 24, 21, 227, 10]"] ;
3 -> 167 ;
168 [label="5728 <= 0.0086\ngini = 0.2985\nsamples = 273\nvalue = [7, 24, 5, 227, 10]"] ;
167 -> 168 ;
169 [label="48 <= 0.0175\ngini = 0.2278\nsamples = 259\nvalue = [7, 10, 5, 227, 10]"] ;
168 -> 169 ;
170 [label="1007 <= 0.0144\ngini = 0.1473\nsamples = 245\nvalue = [2, 7, 4, 226, 6]"] ;
169 -> 170 ;
171 [label="2027 <= 0.0154\ngini = 0.098\nsamples = 237\nvalue = [2, 4, 4, 225, 2]"] ;
170 -> 171 ;
172 [label="1497 <= 0.0325\ngini = 0.0671\nsamples = 233\nvalue = [2, 3, 3, 225, 0]"] ;
171 -> 172 ;
173 [label="82 <= 0.0193\ngini = 0.0428\nsamples = 230\nvalue = [2, 2, 1, 225, 0]"] ;
172 -> 173 ;
174 [label="437 <= 0.0563\ngini = 0.026\nsamples = 228\nvalue = [0, 2, 1, 225, 0]"] ;
173 -> 174 ;
175 [label="313 <= 0.0896\ngini = 0.0088\nsamples = 225\nvalue = [0, 0, 1, 224, 0]"] ;
174 -> 175 ;
176 [label="gini = 0.0\nsamples = 224\nvalue = [0, 0, 0, 224, 0]"] ;
175 -> 176 ;
177 [label="gini = 0.0\nsamples = 1\nvalue = [0, 0, 1, 0, 0]"] ;
175 -> 177 ;
178 [label="8971 <= 0.0423\ngini = 0.4444\nsamples = 3\nvalue = [0, 2, 0, 1, 0]"] ;
174 -> 178 ;
179 [label="gini = 0.0\nsamples = 2\nvalue = [0, 2, 0, 0, 0]"] ;
178 -> 179 ;
180 [label="gini = 0.0\nsamples = 1\nvalue = [0, 0, 0, 1, 0]"] ;
178 -> 180 ;
181 [label="gini = 0.0\nsamples = 2\nvalue = [2, 0, 0, 0, 0]"] ;
173 -> 181 ;
182 [label="4675 <= 0.1634\ngini = 0.4444\nsamples = 3\nvalue = [0, 1, 2, 0, 0]"] ;
172 -> 182 ;
183 [label="gini = 0.0\nsamples = 2\nvalue = [0, 0, 2, 0, 0]"] ;
182 -> 183 ;
184 [label="gini = 0.0\nsamples = 1\nvalue = [0, 1, 0, 0, 0]"] ;
182 -> 184 ;
185 [label="1670 <= 0.021\ngini = 0.625\nsamples = 4\nvalue = [0, 1, 1, 0, 2]"] ;
171 -> 185 ;
186 [label="1810 <= 0.0254\ngini = 0.5\nsamples = 2\nvalue = [0, 1, 1, 0, 0]"] ;
185 -> 186 ;
187 [label="gini = 0.0\nsamples = 1\nvalue = [0, 1, 0, 0, 0]"] ;
186 -> 187 ;
188 [label="gini = 0.0\nsamples = 1\nvalue = [0, 0, 1, 0, 0]"] ;
186 -> 188 ;
189 [label="gini = 0.0\nsamples = 2\nvalue = [0, 0, 0, 0, 2]"] ;
185 -> 189 ;
190 [label="992 <= 0.0806\ngini = 0.5938\nsamples = 8\nvalue = [0, 3, 0, 1, 4]"] ;
170 -> 190 ;
191 [label="529 <= 0.0114\ngini = 0.375\nsamples = 4\nvalue = [0, 3, 0, 1, 0]"] ;
190 -> 191 ;
192 [label="gini = 0.0\nsamples = 3\nvalue = [0, 3, 0, 0, 0]"] ;
191 -> 192 ;
193 [label="gini = 0.0\nsamples = 1\nvalue = [0, 0, 0, 1, 0]"] ;
191 -> 193 ;
194 [label="gini = 0.0\nsamples = 4\nvalue = [0, 0, 0, 0, 4]"] ;
190 -> 194 ;
195 [label="1097 <= 0.0165\ngini = 0.7347\nsamples = 14\nvalue = [5, 3, 1, 1, 4]"] ;
169 -> 195 ;
196 [label="1916 <= 0.0128\ngini = 0.64\nsamples = 10\nvalue = [5, 3, 1, 1, 0]"] ;
195 -> 196 ;
197 [label="gini = 0.0\nsamples = 5\nvalue = [5, 0, 0, 0, 0]"] ;
196 -> 197 ;
198 [label="2894 <= 0.0193\ngini = 0.56\nsamples = 5\nvalue = [0, 3, 1, 1, 0]"] ;
196 -> 198 ;
199 [label="1369 <= 0.0138\ngini = 0.5\nsamples = 2\nvalue = [0, 0, 1, 1, 0]"] ;
198 -> 199 ;
200 [label="gini = 0.0\nsamples = 1\nvalue = [0, 0, 1, 0, 0]"] ;
199 -> 200 ;
201 [label="gini = 0.0\nsamples = 1\nvalue = [0, 0, 0, 1, 0]"] ;
199 -> 201 ;
202 [label="gini = 0.0\nsamples = 3\nvalue = [0, 3, 0, 0, 0]"] ;
198 -> 202 ;
203 [label="gini = 0.0\nsamples = 4\nvalue = [0, 0, 0, 0, 4]"] ;
195 -> 203 ;
204 [label="gini = 0.0\nsamples = 14\nvalue = [0, 14, 0, 0, 0]"] ;
168 -> 204 ;
205 [label="437 <= 0.0355\ngini = 0.1107\nsamples = 17\nvalue = [1, 0, 16, 0, 0]"] ;
167 -> 205 ;
206 [label="gini = 0.0\nsamples = 16\nvalue = [0, 0, 16, 0, 0]"] ;
205 -> 206 ;
207 [label="gini = 0.0\nsamples = 1\nvalue = [1, 0, 0, 0, 0]"] ;
205 -> 207 ;
208 [label="1369 <= 0.0126\ngini = 0.293\nsamples = 186\nvalue = [2, 154, 3, 0, 27]"] ;
2 -> 208 ;
209 [label="4144 <= 0.0248\ngini = 0.0874\nsamples = 155\nvalue = [1, 148, 2, 0, 4]"] ;
208 -> 209 ;
210 [label="7692 <= 0.0184\ngini = 0.0517\nsamples = 152\nvalue = [1, 148, 2, 0, 1]"] ;
209 -> 210 ;
211 [label="1098 <= 0.0347\ngini = 0.0264\nsamples = 150\nvalue = [1, 148, 0, 0, 1]"] ;
210 -> 211 ;
212 [label="1910 <= 0.173\ngini = 0.0133\nsamples = 149\nvalue = [0, 148, 0, 0, 1]"] ;
211 -> 212 ;
213 [label="gini = 0.0\nsamples = 148\nvalue = [0, 148, 0, 0, 0]"] ;
212 -> 213 ;
214 [label="gini = 0.0\nsamples = 1\nvalue = [0, 0, 0, 0, 1]"] ;
212 -> 214 ;
215 [label="gini = 0.0\nsamples = 1\nvalue = [1, 0, 0, 0, 0]"] ;
211 -> 215 ;
216 [label="gini = 0.0\nsamples = 2\nvalue = [0, 0, 2, 0, 0]"] ;
210 -> 216 ;
217 [label="gini = 0.0\nsamples = 3\nvalue = [0, 0, 0, 0, 3]"] ;
209 -> 217 ;
218 [label="303 <= 0.04\ngini = 0.41\nsamples = 31\nvalue = [1, 6, 1, 0, 23]"] ;
208 -> 218 ;
219 [label="1035 <= 0.0251\ngini = 0.2176\nsamples = 25\nvalue = [0, 2, 1, 0, 22]"] ;
218 -> 219 ;
220 [label="946 <= 0.0524\ngini = 0.0832\nsamples = 23\nvalue = [0, 0, 1, 0, 22]"] ;
219 -> 220 ;
221 [label="gini = 0.0\nsamples = 22\nvalue = [0, 0, 0, 0, 22]"] ;
220 -> 221 ;
222 [label="gini = 0.0\nsamples = 1\nvalue = [0, 0, 1, 0, 0]"] ;
220 -> 222 ;
223 [label="gini = 0.0\nsamples = 2\nvalue = [0, 2, 0, 0, 0]"] ;
219 -> 223 ;
224 [label="8 <= 0.0598\ngini = 0.5\nsamples = 6\nvalue = [1, 4, 0, 0, 1]"] ;
218 -> 224 ;
225 [label="gini = 0.0\nsamples = 4\nvalue = [0, 4, 0, 0, 0]"] ;
224 -> 225 ;
226 [label="35 <= 0.0344\ngini = 0.5\nsamples = 2\nvalue = [1, 0, 0, 0, 1]"] ;
224 -> 226 ;
227 [label="gini = 0.0\nsamples = 1\nvalue = [1, 0, 0, 0, 0]"] ;
226 -> 227 ;
228 [label="gini = 0.0\nsamples = 1\nvalue = [0, 0, 0, 0, 1]"] ;
226 -> 228 ;
229 [label="gini = 0.0\nsamples = 144\nvalue = [0, 0, 144, 0, 0]"] ;
1 -> 229 ;
230 [label="6 <= 0.0404\ngini = 0.0713\nsamples = 163\nvalue = [5, 0, 1, 0, 157]"] ;
0 -> 230 [labeldistance=2.5, labelangle=-45, headlabel="False"] ;
231 [label="1236 <= 0.0502\ngini = 0.0249\nsamples = 159\nvalue = [1, 0, 1, 0, 157]"] ;
230 -> 231 ;
232 [label="4790 <= 0.0257\ngini = 0.0126\nsamples = 158\nvalue = [0, 0, 1, 0, 157]"] ;
231 -> 232 ;
233 [label="gini = 0.0\nsamples = 157\nvalue = [0, 0, 0, 0, 157]"] ;
232 -> 233 ;
234 [label="gini = 0.0\nsamples = 1\nvalue = [0, 0, 1, 0, 0]"] ;
232 -> 234 ;
235 [label="gini = 0.0\nsamples = 1\nvalue = [1, 0, 0, 0, 0]"] ;
231 -> 235 ;
236 [label="gini = 0.0\nsamples = 4\nvalue = [4, 0, 0, 0, 0]"] ;
230 -> 236 ;
}